Language model created by QuickLM on Fri Aug 23 04:44:14 EDT 2019
Copyright (c) 1996-2010 Carnegie Mellon University and Alexander I. Rudnicky

The model is in standard ARPA format, designed by Doug Paul while he was at MITRE.

The code that was used to produce this language model is available in Open Source.
Please visit http://www.speech.cs.cmu.edu/tools/ for more information

The (fixed) discount mass is 0.5. The backoffs are computed using the ratio method.
This model based on a corpus of 5 sentences and 7 words

\data\
ngram 1=7
ngram 2=10
ngram 3=5

\1-grams:
-0.7782 </s> -0.3010
-0.7782 <s> -0.2218
-1.4771 停止 -0.2218
-1.4771 前进 -0.2218
-1.4771 后退 -0.2218
-1.4771 向右 -0.2218
-1.4771 向左 -0.2218

\2-grams:
-1.0000 <s> 停止 0.0000
-1.0000 <s> 前进 0.0000
-1.0000 <s> 后退 0.0000
-1.0000 <s> 向右 0.0000
-1.0000 <s> 向左 0.0000
-0.3010 停止 </s> -0.3010
-0.3010 前进 </s> -0.3010
-0.3010 后退 </s> -0.3010
-0.3010 向右 </s> -0.3010
-0.3010 向左 </s> -0.3010

\3-grams:
-0.3010 <s> 停止 </s>
-0.3010 <s> 前进 </s>
-0.3010 <s> 后退 </s>
-0.3010 <s> 向右 </s>
-0.3010 <s> 向左 </s>

\end\
